%YAML:1.0
---
hogsvm: !!opencv-object-detector-hog
   winSize: [ 64, 128 ]
   blockSize: [ 16, 16 ]
   blockStride: [ 8, 8 ]
   cellSize: [ 8, 8 ]
   nbins: 9
   derivAperture: 1
   winSigma: 4.
   histogramNormType: 0
   L2HysThreshold: 2.0000000000000001e-01
   gammaCorrection: 1
   nlevels: 64
   signedGradient: 0
   SVMDetector: [ -9.08652693e-03, -4.21565063e-02, -1.35446507e-02,
       -4.95488523e-03, 1.55549427e-03, -3.42202676e-03, 1.56204961e-02,
       -6.05934206e-03, 8.98162182e-03, 1.71050914e-02, -1.58440899e-02,
       1.31887607e-02, -1.90606585e-03, 3.96656096e-02, 5.52805290e-02,
       2.15318184e-02, 1.06002707e-02, 4.81202379e-02, 2.44587976e-02,
       -5.69084287e-03, 1.40823955e-02, 2.92946510e-02, -1.73993167e-02,
       -1.86494924e-02, -8.87976959e-03, -7.09989714e-03, 1.59629658e-02,
       5.06248651e-03, 1.14338407e-02, 2.36531515e-02, 2.10623946e-02,
       1.19588096e-02, 3.01852692e-02, 2.51046065e-02, -1.26722874e-03,
       4.30075126e-03, 1.30850011e-02, -3.21677960e-02, 3.17752361e-03,
       -2.22137701e-02, 3.21529247e-02, 3.27197798e-02, 5.62973879e-03,
       1.09402360e-02, 3.48860174e-02, 2.83822306e-02, 1.81096345e-02,
       -5.95409889e-03, 7.59537937e-03, 6.10384066e-03, -1.39919249e-02,
       3.83008569e-02, 3.88085917e-02, 8.20156466e-03, -1.95515547e-02,
       -9.32997931e-03, 1.29405186e-02, 1.03383614e-02, 2.54856725e-03,
       1.60866268e-02, 1.93732176e-02, 7.78239872e-03, 5.15045179e-03,
       -6.77496754e-03, 1.08066259e-03, 2.78540701e-03, 2.70303264e-02,
       -2.23773569e-02, -1.55385304e-02, 5.27992472e-03, 1.40763558e-02,
       6.50745770e-03, 2.77408329e-03, 4.45914501e-03, 1.85122713e-03,
       2.04120129e-02, 1.25725726e-02, -1.44014526e-02, 8.19182210e-03,
       -1.16662504e-02, 8.92721117e-04, -2.44927034e-03, 2.18968727e-02,
       2.75433902e-02, 5.21450303e-03, -1.25176681e-03, 1.24195358e-02,
       1.62903965e-02, -1.21942721e-02, 2.72650970e-03, 3.81856412e-03,
       -7.48482198e-05, -7.50583567e-05, 2.52797324e-02, 3.38780088e-03,
       3.64171644e-03, -2.71441275e-03, -6.39378419e-03, -7.24744797e-03,
       2.20317245e-02, -1.11270696e-02, -3.81624140e-03, 3.87227582e-03,
       1.29136061e-02, -8.23373813e-03, -2.10610963e-02, -1.81209631e-02,
       -3.56271444e-03, -2.26161461e-02, 3.48840468e-02, 7.59253651e-03,
       1.55236255e-02, 1.86829641e-02, 5.25695086e-03, 6.91450574e-03,
       1.35973282e-02, 1.28415199e-02, -1.33993365e-02, 1.41494367e-02,
       -4.64242697e-02, -3.18271294e-02, 2.49327458e-02, -1.14310263e-02,
       -7.21114175e-03, 1.46850934e-02, 8.37513478e-04, 9.01456177e-03,
       2.01425683e-02, -2.35334388e-03, 2.11973507e-02, 5.00690145e-03,
       -1.06854020e-02, -5.05449902e-03, -4.87082638e-03, 1.24463001e-02,
       -1.81763712e-02, 2.11879914e-03, -1.12580378e-02, -2.10282281e-02,
       -2.84568183e-02, -1.29277352e-02, -1.00379884e-02,
       -3.13991085e-02, -1.32618565e-02, 2.20738730e-04, 2.38920785e-02,
       -2.64239907e-02, -6.94973860e-03, 4.51509617e-02, -5.29602962e-03,
       1.60653610e-03, 1.94325540e-02, -1.14248404e-02, -4.40010428e-03,
       5.49226766e-03, -1.86999161e-02, -2.48235408e-02, 3.27589153e-03,
       -1.73836295e-02, -9.80816502e-03, -3.41980695e-03,
       -4.29692399e-03, -6.40277751e-03, 3.92725430e-02, 3.46677378e-03,
       1.71036255e-02, 1.76283985e-03, -1.85938962e-02, -1.69212476e-03,
       -4.60458361e-03, -2.53826380e-02, 3.43686971e-03, -2.90173348e-02,
       -3.34032103e-02, -2.51144543e-02, 4.83540166e-03, -1.62149314e-02,
       2.79182964e-03, -9.45352763e-03, 3.85889132e-03, -2.24459358e-03,
       -1.22778499e-02, 6.59174926e-04, 2.29582526e-02, 2.60579363e-02,
       2.31775157e-02, -1.66378599e-02, 1.21164452e-02, 5.98980021e-03,
       -3.12524848e-02, 1.69161917e-03, -2.01644041e-02, 1.73928146e-03,
       -1.74948517e-02, -1.92569476e-02, -1.91821028e-02, 1.46217886e-02,
       7.38322875e-03, 2.56527960e-03, -7.96034280e-03, -1.71797369e-02,
       3.01759895e-02, 4.85161245e-02, 2.52958182e-02, 1.85037293e-02,
       2.40929890e-02, -7.89180771e-03, -7.39513850e-03, 2.08275691e-02,
       6.07389864e-03, 3.13167982e-02, 2.12605111e-03, -3.42860445e-02,
       -2.08445676e-02, -8.76714569e-03, -2.33858894e-03,
       -1.34007642e-02, 1.09127779e-02, -2.85521429e-03, 9.86460503e-03,
       -9.49596800e-03, -1.60366688e-02, -2.58575473e-02, 3.07683852e-02,
       1.37675982e-02, -2.22844873e-02, -7.08089909e-03, -2.71432605e-02,
       -2.48376820e-02, 1.77344568e-02, -2.45815925e-02, -5.27719110e-02,
       1.07632810e-02, -1.21458806e-02, 1.19253416e-02, 1.41664781e-02,
       8.22246261e-03, 2.91489381e-02, 3.53383971e-03, -1.84548052e-03,
       -2.07611546e-03, 2.61507258e-02, 3.37712169e-02, 1.92794204e-03,
       1.11165689e-03, -1.23563521e-02, 1.34674730e-02, 7.26586394e-03,
       4.02503880e-03, -1.95403844e-02, 2.80916914e-02, 2.14841906e-02,
       -2.77030002e-02, 6.26729755e-03, -2.45292652e-02, -8.06350634e-03,
       9.31006871e-05, 1.47361457e-02, -2.22514831e-02, 1.70760881e-02,
       -1.39776450e-02, -3.86401941e-03, -1.48942228e-03,
       -1.66052934e-02, -7.23071303e-03, 8.94430745e-03, -1.04451436e-03,
       7.79174222e-03, 2.48766914e-02, -4.44969349e-03, 1.44698992e-02,
       4.24221307e-02, -1.24742184e-02, 1.51604405e-02, -8.10624007e-03,
       3.53099070e-02, 4.15191008e-03, 1.83681455e-02, 2.17691083e-02,
       -1.69823766e-02, 1.39500797e-02, -1.25205377e-02, -2.53704954e-02,
       -8.92771315e-03, 7.93661736e-03, -1.34990560e-02, -9.53424547e-04,
       -1.19415354e-02, -1.41162006e-02, -1.03427526e-02, 6.51721237e-03,
       1.19069060e-02, -1.20723248e-02, -2.21673083e-02, -1.60364956e-02,
       1.31958807e-02, -1.45312008e-02, 6.16139639e-03, -1.25342011e-02,
       -5.06556127e-03, -1.28186084e-02, 4.17758934e-02, 7.79268658e-03,
       -7.26174051e-03, 2.53462326e-02, -9.67728999e-03, -9.76136047e-03,
       -8.59739352e-03, 2.24806666e-02, 2.97286343e-02, -7.88367167e-03,
       -8.10414739e-03, 1.36478394e-02, 2.26824172e-02, -1.61510380e-03,
       -3.44512686e-02, 1.95553601e-02, -1.78421824e-03, 1.74868740e-02,
       -1.04144886e-02, -2.17043124e-02, -1.00934552e-02,
       -6.77046180e-03, -3.11973058e-02, 1.29714971e-02, -1.26100648e-02,
       -3.95079926e-02, -4.04332671e-03, 1.77923846e-03, 8.26863386e-03,
       -2.08042227e-02, 5.31664817e-03, 2.50913389e-03, 2.54622158e-02,
       -7.24599650e-03, -3.68164107e-02, -2.47273780e-02, 1.69050340e-02,
       1.91699469e-03, -1.64306872e-02, 1.92431342e-02, 1.86526962e-02,
       3.90738342e-03, 2.86589246e-02, 7.12000392e-03, 2.51329616e-02,
       -1.23851486e-02, 4.62260097e-03, -1.17285158e-02, 4.06488171e-03,
       -2.19157524e-02, 2.07849145e-02, 1.64353494e-02, -8.60801339e-03,
       -1.39403893e-02, -2.81848409e-03, -8.69182521e-04,
       -6.37334911e-03, 1.20337196e-02, 2.01412588e-02, 2.77492101e-03,
       -6.97571458e-03, -1.12188165e-03, 1.34098483e-03, 1.35733765e-02,
       -5.62125398e-03, -4.24561789e-03, 2.20925082e-02, 2.59369370e-02,
       -7.81750679e-03, -1.95992608e-02, -1.40066408e-02,
       -1.63801666e-03, 1.34237465e-02, -3.54564120e-03, -9.18834470e-03,
       7.90815428e-03, 1.81586278e-04, -2.94940197e-03, 3.04672569e-02,
       8.19390919e-03, 4.44197766e-02, -4.93170628e-05, -1.24374102e-03,
       -8.15191679e-03, 3.72592779e-03, 4.22979333e-03, -3.28323543e-02,
       7.48823211e-03, 1.45569639e-02, 4.25311038e-03, -7.91691709e-03,
       -2.00085472e-02, -2.58167069e-02, -9.21298633e-04,
       -2.84674633e-02, -1.83943044e-02, -5.64285414e-03, 1.41393067e-02,
       2.38562934e-02, 9.98830236e-03, 1.15403933e-02, -1.28349839e-02,
       3.27831949e-03, -1.17588518e-02, -2.91184895e-02, -1.26665961e-02,
       -1.16840303e-02, -1.20914343e-03, -1.44771731e-03,
       -2.83386726e-02, -3.95189561e-02, 5.38896630e-03, -3.24470215e-02,
       9.97760054e-03, 1.48628308e-02, 1.38384951e-02, -6.51937630e-03,
       -2.69852043e-03, 1.87854730e-02, 2.85459086e-02, 2.31401753e-02,
       -4.26906254e-03, -3.28834448e-03, 1.42349256e-02, -2.15944252e-03,
       3.05849966e-03, 1.29001476e-02, 1.79965643e-03, 4.37734649e-03,
       1.96343921e-02, -1.36621129e-02, -1.78462472e-02, -9.48260911e-03,
       -8.27241875e-03, -1.69811007e-02, -3.18064876e-02,
       -1.44443857e-02, -1.27656907e-02, -4.20828862e-03, 2.84500071e-03,
       -2.03378983e-02, -2.70310100e-02, -2.59117503e-02,
       -2.15751398e-02, -2.64416542e-02, 6.65597850e-04, 2.20001955e-02,
       1.70630496e-02, -3.00885551e-03, -4.34892997e-03, 1.03383251e-02,
       1.80183351e-02, 3.29306088e-02, 1.57701802e-02, -2.32715276e-03,
       8.36603343e-03, 5.92080038e-03, -1.31993718e-03, -1.37685649e-02,
       7.71947112e-03, -8.00497190e-04, 7.18520721e-03, -4.49459214e-04,
       2.26060604e-03, 1.73655543e-02, 7.96245784e-03, -2.16405634e-02,
       -1.45823127e-02, 3.32325436e-02, 2.47233473e-02, 2.14963201e-02,
       8.76622926e-03, -2.23165024e-02, 3.04882675e-02, 3.42263952e-02,
       -3.10334843e-03, -9.82018933e-03, 1.77228712e-02, 1.85889825e-02,
       4.97408304e-03, 2.21889596e-02, 1.43788578e-02, 1.41686955e-02,
       5.49285207e-03, -1.06599275e-02, 6.37343014e-03, 2.87433956e-02,
       1.00933760e-02, 1.45035135e-02, -3.85036459e-03, -1.97904948e-02,
       8.52023065e-03, 1.11182751e-02, -5.84773812e-03, 6.38761744e-03,
       -5.30682446e-04, -3.73698096e-03, 2.57956479e-02, 1.40770394e-02,
       1.62620917e-02, -7.21398508e-03, -3.05301715e-02, -2.24255640e-02,
       6.87268795e-03, -8.09752289e-03, -8.47607944e-03, -1.47612318e-02,
       7.69828679e-03, 9.64646507e-03, 2.57453672e-03, -7.56243430e-03,
       3.62150301e-03, 1.20362835e-02, -4.25636657e-02, -3.24542960e-03,
       3.05802859e-02, -1.61412600e-02, -1.28430985e-02, -1.17061380e-02,
       -1.17416261e-02, 1.46279829e-02, 2.53689494e-02, -5.81095088e-03,
       -1.64187364e-02, 1.56104956e-02, -1.28201051e-02, 4.10426743e-02,
       -6.37922948e-03, -1.27074635e-02, -2.14958144e-03, 3.83862182e-02,
       -3.28001529e-02, 1.74684562e-02, 5.18252887e-03, -2.68435124e-02,
       8.41288920e-03, -7.45300204e-03, -7.82177411e-03, 1.63981058e-02,
       2.77768373e-02, -2.10893694e-02, -8.63561500e-03, 3.07904109e-02,
       6.30347664e-03, -3.93239735e-03, -1.92355383e-02, -1.73115805e-02,
       2.98423301e-02, 3.63272503e-02, 5.55108348e-03, 1.60169825e-02,
       4.40975055e-02, 2.14767624e-02, 2.73450837e-02, 9.95611027e-03,
       -6.16382621e-03, 2.56159324e-02, 5.99962845e-03, -1.44547923e-02,
       1.52406387e-03, -5.75008395e-04, 1.60496216e-02, 3.81527259e-03,
       -2.24022418e-02, -4.56532612e-02, -1.06526306e-02, 1.18502937e-02,
       -1.38753140e-02, -2.60289293e-03, 2.20511369e-02, -2.24568509e-02,
       1.99767929e-02, 3.88715602e-02, -2.45317005e-05, -1.41385407e-03,
       2.44075805e-02, 5.73636778e-03, 7.52051268e-03, 1.09323086e-02,
       2.23747157e-02, -6.70755864e-04, 9.25035961e-03, 9.95771773e-03,
       1.00126136e-02, 3.21541056e-02, -3.28943157e-03, -1.79525316e-02,
       2.33567436e-03, 4.69803158e-03, 5.37816668e-03, 2.21449323e-03,
       -6.50339294e-03, 2.89170127e-02, 1.94503255e-02, 2.62066303e-03,
       8.53682403e-03, -2.64718961e-02, -1.41731580e-03, 3.17350626e-02,
       -5.93517069e-03, -1.18145137e-03, 7.17416126e-03, 3.22373509e-02,
       -1.63232163e-02, -2.00629104e-02, -1.21862320e-02,
       -2.72416025e-02, -7.72770308e-03, -1.34213977e-02,
       -1.30758928e-02, 3.22800241e-02, 1.46729937e-02, 6.97903661e-03,
       -1.86663177e-02, 1.50639033e-02, 2.56382115e-02, 1.53256832e-02,
       3.65836802e-03, 7.17504648e-03, 1.40643967e-02, 1.92703735e-02,
       6.55509811e-03, -1.29672782e-02, -8.24171584e-03, 5.76345436e-03,
       2.86115613e-02, 2.24121492e-02, 2.82199979e-02, 1.66354571e-02,
       9.08659119e-03, -4.96418355e-03, -3.40632536e-02, 5.67956548e-03,
       5.00896946e-03, 9.87729803e-03, -1.01572843e-02, -1.82948820e-02,
       -7.58233247e-03, 1.78489666e-02, -1.42096207e-02, -1.28161320e-02,
       8.85272399e-03, -2.49343850e-02, 2.25307308e-02, 1.70415547e-03,
       7.84442935e-04, 5.45791234e-04, -7.26505602e-03, -2.12018169e-03,
       1.04795983e-02, 9.06099193e-03, -1.24552054e-02, -5.61963813e-03,
       9.07620694e-03, 1.74458716e-02, -1.23607954e-02, 1.12802703e-02,
       6.26270566e-03, -1.01018660e-02, -1.64002683e-02, -2.51645073e-02,
       -2.84194499e-02, -2.48231320e-03, -2.39303745e-02,
       -1.52524188e-02, 2.43168287e-02, 7.85696693e-03, 1.99248940e-02,
       -2.07949169e-02, -1.51545815e-02, 4.73353313e-03, 2.36253291e-02,
       2.81562656e-02, -4.33961535e-03, -2.06207521e-02, -1.68516971e-02,
       -5.64660644e-03, -2.70325206e-02, -1.75977815e-02,
       -9.95732751e-03, 1.13645839e-02, -1.75431091e-02, -2.15491522e-02,
       1.40137561e-02, 1.99923497e-02, -9.68425442e-03, -5.02030784e-03,
       -1.05349841e-02, -1.75400395e-02, 1.80623606e-02, 3.80635331e-03,
       -1.24000413e-02, 9.79950931e-03, 2.23300345e-02, -3.27300765e-02,
       -3.73124778e-02, 2.02098656e-02, -4.79029492e-03, -9.35165584e-03,
       -4.86624194e-03, 3.37686879e-03, 7.77790276e-03, 2.64908653e-02,
       -5.08796331e-03, -1.89125575e-02, 1.38421720e-02, 5.92079200e-03,
       9.15498938e-03, 5.13016060e-03, -9.99134872e-03, 3.91225927e-02,
       2.10305471e-02, -3.75306197e-02, -1.35175083e-02, 1.42744631e-02,
       -1.40663553e-02, -3.13198380e-02, -2.26076432e-02,
       -3.12103704e-02, -7.44557008e-04, 2.52568517e-02, -1.92236006e-02,
       -1.27429771e-03, 1.82933621e-02, -2.52893835e-04, -3.15894955e-03,
       1.33866379e-02, -1.13155954e-02, -1.32461349e-02, 1.99843347e-02,
       -6.42769504e-03, 6.03729673e-03, 1.85082927e-02, -9.26921517e-03,
       -3.03839929e-02, 1.81029998e-02, -2.07744241e-02, 5.09534823e-03,
       2.10599769e-02, 1.34635076e-03, 7.90983345e-03, 2.43440620e-03,
       6.68591307e-03, -5.01462305e-03, 1.36637390e-02, 1.79000024e-03,
       -3.22655737e-02, -1.45377554e-02, -2.76180767e-02, 1.05877016e-02,
       2.64175572e-02, 2.38918257e-03, 8.23635049e-03, 2.01670732e-02,
       1.45797455e-03, 1.20190941e-02, 1.05683189e-02, 7.25676073e-03,
       7.68802222e-03, 1.51421512e-02, -9.09283571e-03, -1.67582575e-02,
       2.79498026e-02, -6.64962828e-03, -1.37765054e-02, 2.68549589e-03,
       9.53661464e-03, -1.97598971e-02, 2.19877949e-03, -9.91745945e-03,
       -3.00829262e-02, 7.90727977e-03, -2.01711934e-02, 2.60517630e-03,
       2.15611644e-02, -1.13401292e-02, -4.23357077e-03, 5.43349683e-02,
       1.74187147e-03, 6.74997456e-03, 2.70937700e-02, -5.65774506e-03,
       -6.56647282e-03, 1.71491094e-02, -8.44776817e-03, -3.16999219e-02,
       1.96389072e-02, -1.95068587e-02, -4.43709921e-03, 3.70326336e-03,
       -9.88149084e-03, 1.15652960e-02, 2.10363120e-02, -1.17293727e-02,
       1.49154877e-02, -5.53814974e-03, 1.52218556e-02, -1.03463046e-02,
       2.71688448e-03, -7.31319468e-03, -1.40265282e-03, 2.46128161e-03,
       -2.30674129e-02, -1.40885254e-02, -2.82586049e-02,
       -2.52809227e-02, -2.19105594e-02, 3.87800683e-04, -2.13764720e-02,
       2.56578401e-02, 2.34771967e-02, 1.06358919e-02, 3.25289890e-02,
       6.98636239e-03, 3.96458134e-02, 9.01576877e-03, 7.57384207e-03,
       2.11790465e-02, 1.16640674e-02, -2.21630726e-02, -7.30706286e-03,
       2.59539764e-02, 1.31577263e-02, 1.84857864e-02, 5.54782012e-03,
       1.37964049e-02, 3.00298799e-02, -8.68337788e-03, -2.10251585e-02,
       -7.74592254e-03, -2.05136463e-02, -2.71538738e-02,
       -9.86010302e-04, -1.87391266e-02, 9.21338238e-03, 2.55955104e-02,
       -1.21467002e-03, -7.28005916e-03, -1.19498810e-02,
       -1.21030007e-02, 4.24328912e-03, -1.71060041e-02, -2.24755574e-02,
       3.19558242e-03, -1.27505064e-02, 7.52985990e-03, -1.30489282e-02,
       -3.88953253e-03, 3.38429250e-02, 5.17062210e-02, 4.62660827e-02,
       7.39892572e-03, 7.65867438e-03, 2.50023808e-02, -1.18084382e-02,
       -3.76255973e-03, -1.14984415e-03, -8.33438477e-04, 2.03565676e-02,
       3.08838431e-02, 6.50632754e-03, -2.32933443e-02, -2.45290473e-02,
       -1.87911633e-02, -1.58214802e-03, -1.48534589e-02, 2.18099374e-02,
       -3.61409038e-02, -2.33212318e-02, -1.32743055e-02, 1.03369961e-02,
       -2.11748648e-02, -3.66187133e-02, 1.66377274e-03, -2.49843113e-02,
       -4.05328460e-02, -9.09420010e-03, -2.38332916e-02,
       -6.14853995e-03, 7.09092990e-03, 4.97597456e-03, 4.73111216e-03,
       1.28266597e-02, 8.46560765e-03, 2.43541375e-02, 1.52304368e-02,
       2.23960150e-02, 1.75680555e-02, 8.63545015e-03, -1.13343066e-02,
       -3.40037718e-02, -9.89166670e-04, -1.35692477e-03, 3.33729736e-03,
       -5.70102548e-03, 9.01572593e-03, 9.72395577e-03, 1.29947299e-03,
       -3.29267904e-02, -3.53624225e-02, 2.21954882e-02, -8.25684331e-03,
       1.76892185e-03, -2.87672877e-03, 9.85517539e-03, -1.92572717e-02,
       -8.68084840e-03, 1.31723015e-02, -9.35325027e-03, -1.02284104e-02,
       -1.15395263e-02, 6.05749898e-03, -2.24836302e-04, -1.37593495e-02,
       -3.28452289e-02, -1.80512220e-02, -1.92589257e-02,
       -2.59393151e-03, 2.20060963e-02, -3.93138872e-03, 5.59734832e-03,
       1.99517217e-02, 2.63297185e-02, 2.27148216e-02, 9.32644773e-03,
       -9.30837635e-03, -1.65823698e-02, -1.42934620e-02,
       -3.24894525e-02, 1.81122534e-02, 2.24150717e-02, 1.84822585e-02,
       8.33502412e-03, 1.12790549e-02, -1.19449673e-02, 3.61040048e-03,
       1.14316419e-02, -8.02711956e-03, 4.21032921e-04, -1.48054967e-02,
       1.67194661e-02, 8.90704046e-04, 1.93622336e-02, 2.20324509e-02,
       -1.61030833e-02, -1.73860264e-03, -2.55226367e-03,
       -6.73491228e-03, -5.12276497e-03, -1.97532177e-02,
       -3.35396230e-02, -8.06083903e-03, 1.67898238e-02, 5.72406268e-03,
       -1.45681137e-02, 7.27237808e-03, 3.60508040e-02, 1.54356416e-02,
       3.09829842e-02, 9.56865400e-03, 1.89698320e-02, 3.96692456e-04,
       2.10109241e-02, 2.82649826e-02, 2.74812095e-02, 4.16412391e-03,
       -6.21662987e-03, 2.30548950e-03, -9.04908497e-03, -9.99093521e-03,
       2.71751210e-02, -1.23923942e-02, -7.84793345e-04, -2.08763592e-03,
       3.73998322e-02, -3.87024623e-03, 3.46954842e-03, -2.58216839e-02,
       -1.62924342e-02, -1.32102519e-02, -1.52831180e-02,
       -3.41700949e-03, -7.62383360e-03, 1.70500167e-02, -1.53840436e-02,
       -4.73026745e-03, -1.13970712e-02, -9.94526781e-03,
       -1.47278123e-02, 5.81527362e-04, 2.01265514e-02, 3.19574773e-02,
       3.24576572e-02, 5.88439684e-03, 3.80458273e-02, 2.81286668e-02,
       3.26365381e-02, -3.76285258e-04, -1.15412772e-02, -1.37335043e-02,
       -5.15205553e-03, 4.21579368e-03, -3.82736162e-03, 1.48880500e-02,
       2.39231419e-02, 3.21684927e-02, -1.11110890e-02, -2.03627385e-02,
       7.51744676e-03, 5.14661148e-03, -6.23255095e-04, -6.01771055e-03,
       1.13501847e-02, -9.23554413e-03, -7.92661961e-03, 1.10104671e-02,
       3.84835759e-03, -1.16171697e-02, 1.74914077e-02, 2.45781541e-02,
       -1.91476289e-02, -2.48768963e-02, -2.18313169e-02,
       -2.04859469e-02, 3.04057933e-02, -6.10422855e-03, -6.37683133e-03,
       5.17073693e-03, -3.93096358e-03, 1.26367714e-02, 2.89462097e-02,
       1.93005744e-02, 1.82462092e-02, 1.85047798e-02, 7.49887340e-03,
       -3.17974277e-02, -2.73944587e-02, 7.92221259e-03, -6.70177909e-03,
       -2.23862845e-02, -1.33512961e-02, -2.09717806e-02, 3.53665464e-02,
       6.92065526e-03, -3.40395025e-03, 1.12670157e-02, 1.29368082e-02,
       2.46803625e-03, 2.97593046e-02, 3.73361143e-03, 3.90177709e-03,
       1.65070016e-02, 1.16427122e-02, -2.12011300e-02, 1.17056835e-02,
       4.48395452e-03, -1.13125760e-02, 2.67369822e-02, 1.12593379e-02,
       -7.43478397e-03, 1.46002630e-02, -2.49848748e-03, -5.38037205e-03,
       7.05134589e-03, 2.87935454e-02, -1.50459819e-03, 3.84205719e-03,
       -2.21373653e-03, -1.00868559e-02, 1.32945077e-02, 1.03546819e-02,
       -1.86804011e-02, 3.09326015e-02, 4.38634865e-02, -2.09105317e-03,
       9.92663018e-03, -1.95224609e-04, -2.60851625e-02, 4.89129964e-03,
       -9.37533565e-03, -1.43495444e-02, 5.22781583e-03, 2.23510619e-02,
       -1.43619557e-03, 8.36115144e-03, -2.10122988e-02, -3.91292833e-02,
       -1.19932098e-02, 2.09595878e-02, 6.81744143e-03, 1.50310956e-02,
       3.18169147e-02, 6.96400646e-03, -5.21874987e-03, 1.41251339e-02,
       1.09484075e-02, 1.55500593e-02, -2.74322573e-02, -1.14473337e-02,
       9.62826516e-03, 3.38453799e-02, 1.11385975e-02, 1.42228426e-02,
       9.79644991e-03, -1.76562443e-02, -4.84433444e-03, -1.16419289e-02,
       -1.74718350e-02, 1.44155906e-03, -1.47524765e-02, -3.00114043e-02,
       -1.27986516e-03, -3.58337052e-02, -1.90329906e-02, 1.35618234e-02,
       -8.76620878e-03, -2.84417346e-02, 9.22708493e-03, -2.54044961e-02,
       2.06107218e-02, -5.04897721e-03, -2.24978030e-02, -1.30973365e-02,
       4.73479880e-03, -3.28666228e-03, -8.28531664e-03, 1.43534271e-02,
       -4.82068630e-03, 8.63195676e-03, -8.21170583e-03, -2.15697885e-02,
       -2.93858554e-02, 2.14184597e-02, 4.96488344e-03, 4.21974109e-03,
       3.93314846e-02, 3.61418426e-02, 3.92981805e-02, 3.69250914e-03,
       -2.98502631e-02, -4.02870998e-02, -3.69848334e-03, 2.37194374e-02,
       5.20385392e-02, 2.35981215e-02, 2.09541619e-02, -4.95319488e-04,
       1.38239469e-02, 1.99018302e-03, -1.76899433e-02, -1.97143611e-02,
       2.93925032e-03, -2.33494826e-02, -3.37823965e-02, -1.30812470e-02,
       2.57308614e-02, -1.23204431e-02, -7.47087831e-03, -1.72110498e-02,
       2.10840750e-04, 8.37087538e-03, -5.99287860e-02, -1.38419215e-02,
       1.90953929e-02, 2.06974745e-02, 1.21486820e-02, 5.64587396e-03,
       1.33140087e-02, 1.05730537e-02, 3.91338579e-02, 9.06316377e-03,
       -2.99120154e-02, -6.30515488e-03, 2.98172399e-05, -8.19611549e-03,
       2.25421283e-02, 4.22786362e-02, 2.66274121e-02, 1.36169810e-02,
       -2.41434053e-02, 3.17940000e-03, 3.90744209e-02, 1.97746530e-02,
       -1.10257615e-03, 5.10630868e-02, 5.22541888e-02, 2.83071715e-02,
       1.33539727e-02, 1.48604941e-02, 4.25044559e-02, 2.20890511e-02,
       -1.49640301e-02, -3.81370895e-02, -7.83234369e-04, 1.35340458e-02,
       -1.15385540e-02, 2.83372682e-02, 3.37082185e-02, 1.72179434e-02,
       -1.60384830e-02, -2.54036412e-02, -1.31920325e-02, 1.19390860e-02,
       6.56372262e-03, -1.29247662e-02, -1.06736766e-02, 5.24296239e-02,
       1.06691159e-01, 7.41867200e-02, 6.82984013e-03, -1.44878868e-02,
       6.77029230e-03, 6.47904910e-03, -4.27306145e-02, 1.30823012e-02,
       3.71403880e-02, 5.54871149e-02, -1.33089500e-03, -4.17968929e-02,
       -3.09709795e-02, -4.28891331e-02, -1.72247142e-02,
       -4.88743186e-02, 4.37002592e-02, 7.66956434e-02, 1.77466813e-02,
       8.10438488e-03, 2.28338642e-03, -1.22900549e-02, 9.13653150e-03,
       1.99485924e-02, 9.49323003e-04, 8.91819783e-03, 2.38474160e-02,
       -2.25293022e-02, -2.25304114e-03, -2.08510477e-02,
       -1.00293225e-02, -2.54369415e-02, -1.38655389e-02,
       -1.91990882e-02, 1.64506827e-02, 2.12899279e-02, -2.30441298e-02,
       -2.38128453e-02, -3.73655371e-02, -1.42210247e-02,
       -6.24190737e-03, 1.97412465e-02, -1.93429589e-02, -1.02669289e-02,
       -1.01760263e-02, -3.29971798e-02, -1.17296102e-02,
       -3.04144379e-02, 2.15789373e-03, -8.62218440e-03, 1.11378161e-02,
       2.07316726e-02, 1.57439038e-02, 3.86048183e-02, 1.99718354e-03,
       -9.63572133e-03, -9.60713346e-03, 1.54741369e-02, 5.21563971e-03,
       -9.18944180e-03, 6.72793621e-03, 6.08689804e-03, 4.95939590e-02,
       1.28327440e-02, 1.11892698e-02, -7.17212865e-03, -1.18195463e-03,
       6.21444592e-03, 7.02737481e-04, -1.14084091e-02, 1.29630845e-02,
       5.84314018e-03, -7.58388732e-03, -1.38224000e-02, -2.17255484e-02,
       1.14933252e-02, -2.94799227e-02, -8.24583136e-03, 2.35603470e-02,
       4.88656620e-03, 1.56928413e-02, -5.80576621e-03, -3.90313417e-02,
       2.47297809e-03, -1.80252027e-02, -3.26265469e-02, 7.14137871e-03,
       2.08532102e-02, 1.08129345e-02, 6.39837012e-02, -1.38438884e-02,
       2.12388532e-03, 2.02525174e-04, -1.64205825e-03, 2.73797219e-03,
       3.07563301e-02, 2.42973166e-03, 9.41394176e-03, 3.92853171e-02,
       -1.14491973e-02, -2.38201451e-02, 9.37920902e-03, -1.50772836e-02,
       1.15213115e-02, 1.89769156e-02, 7.80842686e-03, 1.93145359e-04,
       2.81312298e-02, -2.86114472e-03, -7.96382781e-03, -3.21104415e-02,
       -1.51851550e-02, -9.79804061e-03, 1.84382480e-02, 9.64594726e-03,
       1.05697121e-02, 1.06014684e-03, -2.40981858e-02, -3.10502648e-02,
       -1.79864448e-02, -3.80829088e-02, -2.51446646e-02,
       -3.67501751e-03, 2.63612717e-02, 3.76885682e-02, 4.11153249e-02,
       1.88245662e-02, 1.17261875e-02, 3.28707788e-03, 1.23573439e-02,
       -2.59897346e-03, 5.54627366e-03, 4.51465845e-02, 2.32085753e-02,
       1.89565495e-03, -1.17088901e-02, 8.91476497e-03, 3.34390067e-03,
       3.10201794e-02, 7.78965419e-03, -5.12841670e-03, 5.69009446e-02,
       2.90341657e-02, 1.68713890e-02, 1.22280242e-02, -9.20887571e-03,
       -1.45072760e-02, -5.92747796e-03, -2.80574169e-02, 1.52470614e-03,
       3.12099159e-02, 3.07074245e-02, -2.02841442e-02, -2.75430102e-02,
       -1.70854311e-02, -4.04105103e-03, -7.09970831e-04,
       -1.88650619e-02, 6.61972724e-03, 2.21707076e-02, 2.57629645e-03,
       1.30730392e-02, -2.79903039e-02, 3.61125427e-03, 8.26243125e-03,
       2.93085445e-02, 2.25442052e-02, 1.78909898e-02, 4.14446108e-02,
       -8.63504037e-03, -6.90785891e-05, -2.30053859e-03,
       -9.67784319e-03, 9.50117246e-04, 2.04571430e-02, 1.35739436e-02,
       2.26440979e-03, -1.55424722e-03, 2.83026416e-02, 1.75955892e-02,
       -3.35515589e-02, -1.25979288e-02, 1.18168676e-02, 8.20030086e-03,
       -3.14815994e-03, 3.31906341e-02, 5.19723408e-02, 2.05645468e-02,
       -9.69054271e-03, -1.07602263e-02, -4.84086527e-03, 2.03372678e-03,
       8.79151095e-03, -3.22215632e-02, 2.02547424e-02, 2.98679937e-02,
       -3.62590794e-03, 2.27960665e-02, 7.65073393e-03, 1.38975889e-03,
       -1.23971784e-02, 1.74356867e-02, 6.88178465e-03, 1.48584286e-03,
       1.08896941e-02, 1.08772973e-02, 2.04213876e-02, -2.45549232e-02,
       -1.54184662e-02, -2.58715209e-02, -8.92221462e-03,
       -4.49582562e-03, -3.26153673e-02, -2.33530793e-02, 2.87865233e-02,
       3.02573689e-03, -1.51959411e-03, -9.54100688e-04, -1.25703020e-02,
       1.35034346e-03, -2.99575087e-02, 4.42160144e-02, 1.99418515e-02,
       1.31297745e-02, -1.93374790e-02, -2.37229299e-02, -1.35344956e-02,
       -6.23230822e-03, -1.22542698e-02, -4.63594235e-02,
       -2.94015952e-03, 5.38127357e-03, -5.13008237e-03, 2.11355537e-02,
       -2.08812281e-02, -1.82112269e-02, -8.34739581e-03, 2.56767008e-03,
       5.66257304e-03, -1.15104821e-02, -4.06959206e-02, -8.55469611e-03,
       9.12449788e-03, -3.36167552e-02, 5.40229166e-03, -1.76957564e-03,
       -2.33609881e-02, -1.24709867e-02, -7.16236979e-03,
       -2.10147928e-02, -1.00327684e-02, 1.17101707e-02, -1.64198857e-02,
       -1.21263200e-02, 2.11271532e-02, 2.77218577e-02, -2.31429450e-02,
       1.80678219e-02, -2.72257086e-02, -1.52833136e-02, 2.34352034e-02,
       -5.69575373e-03, 1.73842944e-02, 3.32917683e-02, -4.27155150e-03,
       -2.56017689e-02, -1.19955726e-02, 3.61097828e-02, -6.47917669e-03,
       -1.27237411e-02, -1.76900011e-02, -6.92735333e-03,
       -2.84997188e-02, -8.22400209e-03, -2.60603838e-02,
       -2.43895520e-02, -1.20675508e-02, -8.42870679e-03,
       -7.60345394e-03, -1.48275252e-02, -4.53939959e-02,
       -2.14612484e-03, -6.55252021e-03, -2.56555751e-02,
       -3.98931690e-02, -1.08823078e-02, 1.89526437e-03, 9.26140882e-03,
       -2.01882031e-02, 6.97308499e-03, -3.21892239e-02, -9.13318899e-03,
       -3.01156547e-02, 3.62813030e-03, 2.63081063e-02, 1.09293563e-02,
       -1.95419532e-03, -2.66317707e-02, 2.09667278e-03, 2.87711006e-02,
       -3.94592760e-03, -1.70014668e-02, 2.49775257e-02, 3.26687843e-02,
       -1.71688776e-02, -3.77957080e-03, -8.29542801e-03,
       -1.93280373e-02, -1.95492785e-02, 1.14119956e-02, -1.19306119e-02,
       -9.19150282e-03, -3.53571661e-02, -2.53397208e-02,
       -2.20118724e-02, 4.53125313e-03, -2.99957376e-02, -6.73754290e-02,
       -3.94240841e-02, 1.67966378e-03, 2.47053453e-03, -3.56300250e-02,
       3.98893766e-02, 6.33407757e-02, 2.18786839e-02, 4.54893932e-02,
       2.17903461e-02, 4.54473272e-02, 1.24667622e-02, 2.53270529e-02,
       1.67144164e-02, 1.30570196e-02, 2.88500339e-02, 4.32516299e-02,
       2.14318316e-02, 7.86727853e-03, 8.48198310e-03, 1.37149198e-02,
       8.04359745e-03, 4.88461135e-03, 1.08106332e-02, -1.50734675e-03,
       3.59617360e-03, -1.72657892e-02, 1.35302953e-02, 3.80027629e-02,
       2.37166248e-02, 2.13946421e-02, 4.73691989e-03, -1.44858630e-02,
       -4.76838946e-02, -3.68099771e-02, -2.80407518e-02,
       -7.74082076e-03, -2.18188800e-02, 6.69409463e-04, -7.99717847e-03,
       8.86360090e-03, 2.09606066e-02, 4.42129038e-02, 4.94386740e-02,
       3.99668179e-02, 4.82153930e-02, 5.85144497e-02, 9.85676795e-03,
       1.87790580e-02, 5.04606124e-03, -4.24776692e-03, -2.89418437e-02,
       1.36921601e-02, 8.38586409e-03, 2.04047970e-02, 3.91752459e-02,
       -2.83087511e-03, -2.44038086e-02, -6.33327989e-03, 5.48011018e-03,
       -1.38936490e-02, 1.89688813e-04, 4.41070553e-03, 4.78887872e-04,
       -2.81102350e-03, 5.99787664e-03, 1.50863677e-02, 2.56792940e-02,
       -5.68641117e-03, -2.43411176e-02, 1.93335190e-02, 9.08954348e-03,
       -1.21340677e-02, 3.72998649e-03, 7.07544386e-04, -2.51331404e-02,
       -6.41216803e-03, 1.47441169e-02, -1.10781044e-02, 7.83011597e-03,
       2.53348175e-04, -9.78356041e-03, 3.79250534e-02, -3.51662340e-04,
       1.53210694e-02, 5.04926837e-04, 3.14032868e-03, -4.62085418e-02,
       -1.91152052e-04, 1.93581339e-02, -5.40230656e-03, 1.72086526e-02,
       1.18315276e-02, -6.18936727e-03, -2.15080120e-02, 5.54126268e-03,
       -1.51604693e-02, 1.46835120e-02, -2.01769322e-02, -3.11489357e-03,
       -1.13109853e-02, -1.16680993e-03, -1.65603589e-02, 8.75114463e-03,
       3.07397288e-03, -2.46449560e-02, 1.82264228e-03, -5.32384217e-03,
       -1.14673609e-02, 9.86170955e-03, -6.17201952e-03, -1.30106844e-02,
       3.83904204e-02, 4.77935821e-02, -3.22870985e-02, -1.37802269e-02,
       -3.53049524e-02, -5.76335238e-03, -1.58535615e-02,
       -2.73356331e-03, 2.43448815e-03, 4.57804501e-02, 1.84800327e-02,
       -3.41889411e-02, -2.71796249e-02, -1.65531822e-02, 1.88632077e-03,
       3.05126118e-03, -9.95047949e-03, 5.01808710e-03, 3.85974981e-02,
       -4.17959206e-02, -1.14195216e-02, 3.11666764e-02, 3.62315550e-02,
       3.51233082e-03, -7.88746343e-04, -1.70406811e-02, -3.90011258e-02,
       -3.73916626e-02, 3.44791263e-02, 6.73575029e-02, 3.56276371e-02,
       3.56186666e-02, -1.16646606e-02, 1.31147588e-02, 8.93906457e-04,
       -2.38997787e-02, -2.03589201e-02, -4.11900468e-02,
       -4.00887663e-03, 6.14347346e-02, 7.00548738e-02, 5.70770912e-02,
       5.41735440e-02, 2.99073085e-02, -1.87221915e-02, -2.92171538e-02,
       -1.89225599e-02, 2.53265556e-02, 5.69436885e-02, 5.81400394e-02,
       1.07557829e-02, 4.21731919e-02, 4.61208113e-02, -4.69412841e-03,
       -3.19513567e-02, 5.08774631e-02, 1.57649163e-02, -1.53579442e-02,
       2.10186802e-02, -1.31794699e-02, -6.40029879e-03, 8.12162925e-03,
       4.31873277e-02, 4.05987315e-02, -2.18323362e-03, -9.43588838e-03,
       2.63802763e-02, 3.92736234e-02, -3.19508673e-03, -3.28562930e-02,
       2.14496870e-02, 5.15833870e-02, 3.70827913e-02, 5.16036004e-02,
       3.27811576e-02, -2.80594416e-02, 2.05535777e-02, -8.33995640e-03,
       9.89221688e-03, 1.40272584e-02, 2.94801630e-02, 4.47857529e-02,
       3.01464163e-02, 1.72364910e-03, 2.61900667e-02, -3.62024912e-05,
       8.05866905e-03, -1.09326225e-02, 1.27615137e-02, 3.02251298e-02,
       3.96140069e-02, -4.05458473e-02, 6.10128045e-02, 1.01481028e-01,
       8.84873047e-02, 1.47541817e-02, 3.53306904e-02, 2.99371723e-02,
       4.92989235e-02, -5.45758381e-03, -2.07200311e-02, -1.49031309e-02,
       -1.90560252e-03, 1.79367568e-02, -7.18994765e-03, 2.04129890e-02,
       -7.17669667e-04, 3.46534536e-03, -2.86679864e-02, -2.11369209e-02,
       2.09747255e-02, 5.15545830e-02, 2.69960184e-02, 4.80925478e-03,
       2.10284237e-02, 4.57046255e-02, 1.99141223e-02, -1.08897192e-02,
       -4.53931876e-02, -2.10419223e-02, -1.58633348e-02,
       -1.00340098e-02, -1.33274663e-02, -1.10181898e-03,
       -1.88669260e-03, -1.08559057e-02, -2.92406175e-02, 5.52118104e-03,
       -1.90117508e-02, -1.66332014e-02, -3.16320662e-03,
       -6.72673248e-03, 2.79117599e-02, 1.88710783e-02, 3.67423780e-02,
       6.18670881e-03, -4.08334192e-03, -2.37287320e-02, -4.81394446e-03,
       -2.41079484e-03, -1.91496387e-02, 1.36847678e-03, 3.17060243e-04,
       -1.19679961e-02, 1.04161557e-02, 1.77863857e-03, 3.49644711e-03,
       -1.41752502e-02, 2.23462586e-03, -1.20828515e-02, 1.53056122e-02,
       1.50758796e-03, -2.54949997e-03, 3.70591693e-03, -6.72938069e-03,
       -2.57606376e-02, -3.19488458e-02, -3.01663652e-02,
       -3.43817994e-02, -3.28419842e-02, -1.78512186e-02,
       -4.71677780e-02, 5.93768898e-03, -1.08954171e-02, 2.68614721e-02,
       2.11681016e-02, 1.76670328e-02, -5.72689297e-03, 2.01384891e-02,
       -5.05050831e-03, 3.71600990e-03, 1.69105381e-02, -1.57603044e-02,
       1.95461363e-02, 8.21377058e-03, -2.65439842e-02, -1.42083352e-03,
       -2.65123858e-03, 5.48390020e-03, 6.99176686e-03, -2.03486420e-02,
       1.65501218e-02, -1.00840125e-02, -1.55333336e-02, -2.98816524e-03,
       -1.35417469e-02, 4.02279152e-03, 6.87576784e-03, 2.03882647e-03,
       2.90423688e-02, 8.89905263e-03, 2.40861811e-02, -1.06854914e-02,
       -2.64005587e-02, -2.22873874e-02, -2.89243963e-02,
       -2.31772903e-02, 1.00743538e-02, -1.43513149e-02, -1.69144217e-02,
       1.55057805e-02, -6.22499315e-03, 1.05488142e-02, -1.43845649e-02,
       1.39360176e-02, -3.67453112e-03, 1.28444899e-02, -1.17894299e-02,
       5.34876250e-03, 1.96204218e-03, -7.15159765e-03, 1.19295400e-02,
       2.64071138e-03, 1.80772562e-02, 1.27659161e-02, 3.69808525e-02,
       -5.52969147e-03, -2.97166109e-02, -8.17976985e-03,
       -6.88757934e-03, 2.17690207e-02, 6.68712251e-04, 8.41033738e-03,
       -1.24033785e-03, -7.91557692e-03, -4.45163958e-02,
       -2.77589858e-02, -2.42678132e-02, 1.25703700e-02, 1.76215842e-02,
       1.12317726e-02, 3.49317081e-02, 2.75837034e-02, 9.87845659e-03,
       -1.85835846e-02, 2.04677843e-02, 2.79405918e-02, 1.27243260e-02,
       1.94331612e-02, 1.01541979e-02, 5.02521433e-02, 1.45297218e-02,
       3.04243769e-02, -1.37967393e-02, -8.03695340e-03, -1.85901895e-02,
       -1.26306424e-02, 1.03606889e-02, 1.16377380e-02, 1.56551879e-03,
       5.96520957e-03, 7.41883321e-03, -3.90528105e-02, -2.13882490e-03,
       1.85440120e-03, 1.39970100e-03, 1.18243210e-02, -2.31532427e-03,
       2.18050163e-02, 1.51097272e-02, 1.83732957e-02, -2.70745885e-02,
       -2.72975825e-02, 1.98256015e-03, -8.62747151e-03, 8.38829554e-04,
       1.89992990e-02, -1.90788917e-02, -1.12117864e-02, -8.54423828e-03,
       -2.79481448e-02, -4.05707285e-02, 3.00416127e-02, 1.12521229e-02,
       2.80955657e-02, 7.85618089e-03, -2.19890685e-03, -2.88216937e-02,
       -1.13773895e-02, 2.56766332e-03, 9.51168407e-03, 4.05380093e-02,
       1.54455702e-04, 1.21719418e-02, 1.18494853e-02, 2.77104583e-02,
       -3.24228443e-02, 1.39289415e-02, 1.55650927e-02, -4.26451825e-02,
       1.10713597e-02, -1.14597809e-02, 4.59388644e-03, 2.52907863e-03,
       -6.23157574e-03, -4.88846470e-03, 1.16042020e-02, -1.98160950e-02,
       -1.62848793e-02, 2.02928279e-02, -3.34351547e-02, -1.37318345e-02,
       -1.16016809e-02, 3.20505211e-03, -3.68831865e-02, 2.73464508e-02,
       2.88272440e-03, -2.29396559e-02, 1.49909621e-02, 1.23922108e-02,
       6.27531251e-03, -4.52337647e-03, 1.50335412e-02, -4.06718291e-02,
       8.91570840e-03, -7.56392814e-03, 2.35991534e-02, 1.00725656e-02,
       4.78533469e-03, -2.73961220e-02, -8.62279814e-03, -9.60982591e-03,
       -2.15593372e-02, 5.09105762e-03, -1.43322088e-02, -1.05051510e-03,
       4.93629370e-03, -2.84533966e-02, -1.21011585e-02, -3.76613624e-03,
       -7.63966842e-03, -4.12268825e-02, 3.09879463e-02, -5.36425738e-03,
       5.85132651e-03, 4.24948558e-02, -1.20419217e-02, -4.75951144e-03,
       -1.10505158e-02, 2.98005273e-03, -1.15404176e-02, 4.70183045e-02,
       7.73515413e-03, -8.70579109e-03, 5.47646098e-02, -1.05533022e-02,
       -2.92660892e-02, 9.10412334e-03, -3.83288879e-03, -2.04341765e-02,
       2.39479300e-02, -3.61997336e-02, 1.73138455e-02, 1.81584563e-02,
       -1.80101208e-02, 2.05852930e-03, 1.90036222e-02, 3.87092843e-03,
       2.25279550e-03, 8.85024387e-03, 3.62217240e-03, 1.09943992e-03,
       4.32805121e-02, -1.35837169e-02, -2.49199681e-02, 1.09969601e-02,
       -7.37567618e-03, -2.66027711e-02, 3.62935551e-02, -2.24607941e-02,
       1.54877536e-03, 3.83437425e-03, -5.33267856e-02, -3.36378701e-02,
       -2.43904069e-02, 8.36643111e-03, -2.89002135e-02, 2.73365527e-02,
       -1.47023937e-02, -2.99652223e-03, 1.40630256e-03, -1.11223999e-02,
       -2.45920662e-02, -3.98936011e-02, -1.49891721e-02,
       -2.64796615e-02, -1.32035539e-02, 2.29416899e-02, 1.05294473e-02,
       -1.23641323e-02, -9.68011376e-03, -1.39453895e-02,
       -2.34733075e-02, -2.64328681e-02, -1.33762695e-02, 5.84700564e-03,
       4.77128029e-02, -1.72876939e-02, -5.46984561e-03, -2.38709990e-02,
       -1.43993339e-02, -9.73093230e-03, 3.31939594e-03, -3.44470851e-02,
       4.95231571e-03, -3.15764062e-02, 5.44742907e-05, 1.41542712e-02,
       -2.06146147e-02, -1.01841316e-02, -2.28017718e-02,
       -2.74899194e-05, -2.07360256e-02, 2.60909144e-02, 3.61308903e-02,
       2.54477770e-03, 4.38322611e-02, 1.44926803e-02, 1.93983261e-02,
       -3.35615613e-02, -1.80950726e-03, 3.88129684e-03, -9.31398757e-03,
       2.20410973e-02, 1.32431090e-02, 2.81071682e-02, 1.01343989e-02,
       -1.06930220e-03, -8.64006486e-03, -8.13505705e-03,
       -7.42031168e-03, 5.68798743e-03, 1.04723405e-02, -1.47808623e-02,
       1.29047865e-02, 9.38377995e-03, 3.41482684e-02, -3.04137003e-02,
       1.57598853e-02, -1.39107276e-02, 7.64941145e-03, 1.12024406e-02,
       -1.92205640e-04, 1.71113899e-03, -8.40344746e-03, 1.96656138e-02,
       1.39110759e-02, -1.79881370e-03, -5.77228190e-03, -2.80489353e-03,
       -5.17316302e-03, 1.35864159e-02, 3.02785877e-02, 3.37810395e-03,
       2.09624879e-02, 6.09960482e-02, 6.04394414e-02, -1.52801564e-02,
       1.65180042e-02, 7.36307865e-03, -2.81976219e-02, -2.15187967e-02,
       -4.02453402e-03, -6.01139888e-02, -6.50251238e-03,
       -2.67965011e-02, -4.01967317e-02, -3.11636347e-02,
       -1.46064954e-02, 2.31662672e-02, 1.67321879e-02, -1.26869380e-02,
       6.26333505e-02, 7.33771250e-02, 5.79828210e-02, 2.12668851e-02,
       2.29989327e-02, 2.54439637e-02, -2.63819788e-02, -2.95933690e-02,
       -1.15317786e-02, -3.60517278e-02, 6.43518940e-03, -4.20269137e-03,
       -3.28204855e-02, -3.83929908e-02, -2.81302780e-02, 2.53235269e-02,
       -1.71402621e-03, 1.16775865e-02, -2.37677917e-02, -2.02288497e-02,
       9.89997108e-03, 2.36559613e-03, 2.52093356e-02, 7.36531289e-03,
       1.25908563e-02, -3.54811177e-02, -1.75317060e-02, 4.89535648e-03,
       -1.04863779e-03, 2.81008631e-02, 5.16193360e-03, -3.07310838e-03,
       -1.69364624e-02, -7.81481154e-03, -2.00092886e-02, 5.95730077e-03,
       -5.20067289e-04, -2.66029709e-03, 2.71952506e-02, 1.50388349e-02,
       -2.03481261e-02, -3.18638049e-03, 1.81296673e-02, -8.69979791e-04,
       -1.93773787e-02, 2.77300440e-02, -1.82940215e-02, 2.40353458e-02,
       4.94295266e-03, -1.15477033e-02, 1.35818999e-02, 1.81885529e-02,
       -2.26886827e-03, -1.90922860e-02, -2.35886443e-02,
       -3.61371487e-02, -1.17770899e-02, 1.23673640e-02, -5.02947997e-03,
       1.09057603e-02, 3.21280062e-02, -1.11517664e-02, -2.61025224e-02,
       2.10393425e-02, 1.57713387e-02, -1.63626894e-02, -2.19268724e-02,
       -2.84094531e-02, 2.35477276e-02, 1.11210756e-02, -1.99806206e-02,
       -1.21296057e-02, -2.72461842e-03, 1.25873964e-02, 3.58997956e-02,
       1.23247923e-02, 9.76795051e-03, -1.83932725e-02, 3.26907448e-02,
       -1.17414501e-02, -1.49890110e-02, 1.86397936e-02, 9.67165548e-03,
       3.31977271e-02, 1.68413129e-02, 2.57323030e-04, 2.71301344e-02,
       -1.17697772e-02, -2.49111112e-02, 1.67966764e-02, 3.00710853e-02,
       5.54241650e-02, 8.21978152e-02, 7.13150874e-02, 2.22558174e-02,
       -5.53822704e-03, -3.63585167e-02, 1.10679271e-03, 4.51818779e-02,
       2.94780489e-02, 2.35723844e-03, 7.18155950e-02, 7.24793077e-02,
       9.11011323e-02, -3.74545879e-03, -4.52133939e-02, -4.77500223e-02,
       -2.30698902e-02, -9.13925748e-03, 1.88329890e-02, 1.97597127e-02,
       1.70490108e-02, -4.21747193e-02, -4.00042459e-02, -2.16775704e-02,
       -2.41766144e-02, -1.92031916e-02, -1.13919824e-02,
       -1.79551896e-02, 2.44367886e-02, 4.16984260e-02, 4.26248610e-02,
       6.15484966e-03, 3.90816405e-02, 3.32883149e-02, 1.36898048e-02,
       -3.08260531e-03, -1.39425008e-03, 1.79479662e-02, -3.59677151e-02,
       1.84727293e-02, 3.04847360e-02, 4.93982732e-02, 5.34648784e-02,
       2.58496571e-02, -2.94947028e-02, -2.29031473e-04, 8.65545496e-03,
       3.19052562e-02, 6.55306212e-04, 1.89548507e-02, 6.87593892e-02,
       5.19914627e-02, -6.48551900e-03, -1.37337316e-02, -2.64925528e-02,
       -2.47587431e-02, -3.24576870e-02, 1.95239261e-02, 6.24241009e-02,
       4.80855107e-02, 5.99784851e-02, 2.68577635e-02, -3.51661742e-02,
       1.95396715e-03, 1.33268404e-04, 1.42264487e-02, -3.66573036e-02,
       2.84556905e-03, 1.73350219e-02, 4.04032134e-02, 5.84801026e-02,
       1.89162605e-02, -3.77230649e-03, 3.97997275e-02, 5.42916246e-02,
       2.43772622e-02, -5.35394363e-02, -6.49210624e-03, -1.26419980e-02,
       1.65725090e-02, 1.59871615e-02, -3.49076465e-02, -3.28419358e-02,
       -2.75689624e-02, -2.61205267e-02, -5.22783063e-02,
       -1.77431013e-02, 2.61032656e-02, 3.71174291e-02, 1.15913507e-02,
       4.74051870e-02, 8.34112018e-02, 1.08997487e-01, 5.01547158e-02,
       -2.58368198e-02, -3.69144790e-02, -2.45381314e-02,
       -3.30923088e-02, -1.46480044e-02, -1.14279976e-02,
       -5.19568985e-03, 1.31849563e-02, 1.10752089e-03, -1.76439639e-02,
       -2.37794463e-02, 7.93203060e-03, 1.05732470e-03, 1.37638273e-02,
       -2.72711627e-02, -9.16102808e-03, -2.09575836e-02, 8.87365546e-03,
       -1.23580555e-02, -2.54013296e-02, -3.52217467e-03,
       -3.33755394e-03, -1.83530152e-02, -3.83477248e-02,
       -2.67525725e-02, -2.85952594e-02, -1.43804224e-02,
       -4.08128835e-02, -4.41964669e-03, 3.18167657e-02, 4.92840679e-03,
       -1.01055317e-02, -1.92212332e-02, 1.41369160e-02, 1.69824548e-02,
       4.95148562e-02, 1.13322278e-02, -2.63770600e-03, 2.32088920e-02,
       1.27557348e-02, -4.88505745e-03, -3.41128409e-02, 2.38879374e-03,
       -1.52035663e-02, 1.09191928e-02, -6.19943161e-03, 3.10016051e-03,
       2.73885252e-03, -3.72580509e-03, -1.17159123e-03, -8.78128130e-03,
       1.17075630e-02, -3.14739184e-03, -1.07462099e-02, -1.12484628e-02,
       4.41142311e-03, 1.24195507e-02, -2.73466241e-02, -2.60639545e-02,
       -1.21770017e-02, -1.44513249e-02, -2.72867382e-02,
       -1.68177634e-02, -1.88027043e-02, 2.08067447e-02, 3.35036777e-02,
       1.70008000e-02, 2.61820871e-02, -1.20013542e-02, 5.38964523e-03,
       8.55063926e-03, 3.92698497e-02, 1.38153946e-02, 8.38243519e-04,
       1.01465639e-02, 6.02686638e-03, 1.42488461e-02, 5.98791800e-03,
       -1.37243429e-02, 7.01011345e-03, 4.09318395e-02, 2.39248276e-02,
       -1.16700111e-02, 2.96185422e-03, 5.16442535e-03, 1.11431757e-03,
       -2.54933108e-02, -7.35881971e-03, -2.36184970e-02,
       -4.85146744e-03, -2.59879082e-02, -3.45261917e-02,
       -6.76834537e-03, 1.42365473e-03, 3.35255861e-02, -5.64673264e-03,
       -2.57445332e-02, -5.21238428e-03, 5.96548617e-03, -3.66220400e-02,
       -3.20124393e-03, 1.92780755e-02, 1.88003033e-02, 2.90943566e-03,
       -2.18148972e-03, 8.73620249e-03, 1.02292150e-02, 5.89482561e-02,
       -2.18524318e-03, -1.33105805e-02, -3.90141807e-03,
       -6.39356533e-03, 4.47079306e-03, 1.57480165e-02, -5.30815218e-03,
       -1.97938327e-02, 3.42907906e-02, 5.07343002e-03, -3.00904922e-02,
       2.36293618e-02, 5.90943079e-03, 3.06738280e-02, -7.27743190e-03,
       -4.45466535e-03, -1.79708023e-02, 9.31570400e-03, 2.32276483e-03,
       -2.25563869e-02, 1.04700355e-02, -2.01318152e-02, -8.64744838e-03,
       2.08687000e-02, -2.25130189e-03, -1.19913351e-02, -1.81039069e-02,
       -2.32029352e-02, -9.12037864e-03, 1.36047658e-02, -8.17316119e-04,
       2.44181827e-02, 1.89036466e-02, 1.54905929e-03, -5.96341351e-03,
       3.67025584e-02, 2.18054582e-03, -1.04509313e-02, 2.54337322e-02,
       -1.63552202e-02, -3.69070843e-03, 1.75706223e-02, -2.64998078e-02,
       1.53936632e-02, 1.30289653e-02, -9.43183340e-03, -1.70059949e-02,
       1.09371683e-02, -3.16038877e-02, 1.26539019e-03, -4.33105342e-02,
       -1.91296339e-02, -1.87626528e-03, -3.26097652e-04,
       -4.27377187e-02, 5.04140556e-03, 1.34860985e-02, -3.83947641e-02,
       -5.80211775e-03, -1.05800964e-02, -4.96028038e-03,
       -1.47734545e-02, 4.96933572e-02, -1.84485093e-02, 3.48273925e-02,
       6.64827377e-02, -6.42075110e-03, 2.05240827e-02, -9.75256693e-03,
       -3.30700874e-02, 8.46496131e-03, 2.61215251e-02, -2.56477203e-02,
       3.67993079e-02, 4.20287177e-02, -1.24731930e-02, 8.05147272e-03,
       3.11290799e-03, -3.97797786e-02, -3.16989124e-02, -4.76289401e-03,
       1.58224422e-02, -1.72894541e-02, -5.64142736e-03, -3.77712101e-02,
       -3.60317412e-03, -2.15264261e-02, -4.50848928e-03,
       -3.06243822e-02, 6.17563166e-02, -7.40421889e-03, 2.36114115e-02,
       8.67144112e-03, -1.06086321e-02, 1.10467889e-04, -1.21512553e-02,
       -3.04589737e-02, 3.40344314e-03, 5.31678200e-02, 1.66023150e-02,
       -4.06087562e-03, 1.45622659e-02, -4.39737476e-02, -3.56278848e-04,
       -9.12718102e-03, -2.69296095e-02, -3.52997035e-02,
       -6.60570385e-03, -1.21775260e-02, 2.68236101e-02, 4.26796963e-03,
       -2.58733500e-02, -1.32460790e-02, 1.05014269e-03, -3.91240381e-02,
       -2.27136146e-02, 1.31822014e-02, 1.00886067e-02, -2.81135291e-02,
       1.48009174e-02, -1.74820572e-02, -2.77672410e-02, -3.22846998e-03,
       -2.10786164e-02, -1.87230092e-02, 6.00933097e-02, 1.01922126e-02,
       9.77660716e-03, 6.27706759e-03, -2.62993034e-02, -2.37418804e-02,
       -1.98249537e-02, -1.63117726e-03, -2.65918672e-02, 1.72218103e-02,
       3.82734239e-02, -2.80017350e-02, -1.27179583e-03, -2.75640073e-03,
       -1.57422759e-02, -9.18786973e-03, -3.11762262e-02,
       -2.02404410e-02, 4.42391448e-02, -3.13745588e-02, 2.75500733e-02,
       -4.89240605e-03, 1.27459290e-02, -6.25387719e-03, -5.17370645e-03,
       3.41305439e-03, -7.34012900e-03, 1.96271800e-02, -7.78703345e-03,
       -7.41058681e-03, 1.07596787e-02, -2.77458038e-02, -7.34325033e-03,
       -1.94544122e-02, -3.30735301e-03, -1.79545507e-02, 6.08570641e-03,
       8.03959183e-03, 1.79373492e-02, 3.54137942e-02, -7.43065914e-03,
       -3.90755665e-03, 2.85045855e-04, -3.54731036e-03, -3.79179209e-03,
       1.26991794e-02, 3.38226631e-02, 1.26567986e-02, -1.75356157e-02,
       -4.43645604e-02, -8.53053667e-03, -1.40359830e-02,
       -8.99340212e-03, -4.55394824e-04, 5.38093643e-03, -1.82261001e-02,
       1.00638708e-02, 1.27132339e-02, -4.04815190e-02, -2.23424714e-02,
       -8.27507209e-03, -4.11965437e-02, -2.25126855e-02, 6.01492263e-03,
       1.39413346e-02, 8.93316232e-03, 2.97462922e-02, 2.16234792e-02,
       2.86822319e-02, -1.05677126e-02, 3.80412154e-02, 2.02952977e-02,
       2.90613379e-02, 1.50025301e-02, 1.12642972e-02, 1.72750186e-02,
       -2.23176144e-02, -1.61330495e-02, 2.61856467e-02, 9.30116046e-03,
       2.45719608e-02, 3.43236327e-02, 1.81033015e-02, -2.12261416e-02,
       1.94676183e-02, -2.19496898e-03, -1.33432308e-03, -2.19521653e-02,
       2.00042743e-02, 7.39938579e-03, 3.95030268e-02, 3.15010431e-03,
       -2.03084312e-02, 1.21952072e-02, -2.47328244e-02, -2.39388570e-02,
       -7.77490530e-03, -2.44663507e-02, 9.43373702e-03, 1.61054824e-02,
       -2.20872374e-04, 4.13264148e-02, 3.10480110e-02, -7.01974984e-03,
       6.52940944e-02, 6.98807016e-02, 3.61584313e-02, 1.38635635e-02,
       6.91235214e-02, 3.30627561e-02, -1.09553784e-02, -1.41387014e-02,
       -2.72910055e-02, -1.77425165e-02, 2.56003346e-02, -2.36626342e-02,
       -1.31136812e-02, -9.72088613e-03, -1.29853925e-02, 3.08008436e-02,
       3.57582942e-02, 7.42587075e-03, 6.29082322e-02, 5.91250844e-02,
       -4.81414422e-03, -7.14503648e-03, 3.10717765e-02, 1.63651425e-02,
       -1.71941146e-02, -4.35503833e-02, -3.11571192e-02,
       -1.63939651e-02, 1.33462958e-02, -6.30235821e-02, -5.43558896e-02,
       -3.22853327e-02, -2.89359130e-02, -5.05514909e-04,
       -5.25831711e-04, 1.61894429e-02, 1.46811930e-02, -1.63451619e-02,
       9.77856293e-03, 8.83951876e-03, -9.50044766e-03, 1.89848263e-02,
       6.93766354e-03, -4.52677859e-03, 2.27513760e-02, 2.01044194e-02,
       -2.96062715e-02, -7.18458090e-03, -2.04496011e-02,
       -1.38616208e-02, 1.54842027e-02, 3.90109513e-03, 6.46707928e-03,
       1.87052321e-03, 4.08640020e-02, -2.96944333e-03, 1.08095398e-02,
       1.26571255e-02, -5.60384057e-03, 1.36823235e-02, -1.48072401e-02,
       -1.37455817e-02, 8.47389828e-03, 6.52971193e-02, -1.96065195e-02,
       8.58934503e-03, 1.19716572e-02, -4.53906581e-02, 5.44809876e-03,
       3.78754623e-02, -7.09440047e-03, -8.37013684e-03, -3.79483972e-05,
       -9.51781310e-03, 1.51377143e-02, -1.10674165e-02, -4.76999441e-03,
       1.68993771e-02, 2.06826180e-02, 1.07222917e-02, 4.96107107e-03,
       1.55113656e-02, -1.15488684e-02, -1.30398460e-02, -2.45634802e-02,
       -2.95973867e-02, 1.16720656e-02, 3.67801078e-02, -2.21769977e-02,
       -4.26317798e-03, 1.42373387e-02, -2.81547406e-03, 3.43418941e-02,
       1.62773468e-02, 2.70906873e-02, 4.04683761e-02, 1.53267868e-02,
       8.67501087e-03, 1.14852097e-03, 3.01094726e-02, -3.25205619e-03,
       2.15980075e-02, -6.71342574e-03, 1.68920308e-02, 3.65212671e-02,
       -8.56127497e-03, -2.34721415e-02, -1.08610652e-02, 1.53037375e-02,
       4.41841669e-02, 1.00959409e-02, 1.24596851e-02, -2.53247600e-02,
       -1.25197461e-02, -1.63311660e-02, -2.31219237e-04,
       -1.67373400e-02, 1.36754643e-02, 3.60558601e-03, 3.29479948e-02,
       2.11310834e-02, 2.30807476e-02, 1.71634257e-02, -1.36101050e-02,
       -2.52904128e-02, -2.14733612e-02, 5.06430306e-03, -5.86785423e-03,
       -3.08759175e-02, -3.32197547e-02, -4.83878627e-02, 8.18611216e-03,
       6.48588128e-03, -2.82272454e-02, 1.97180267e-03, -3.50010302e-03,
       -2.04755440e-02, -2.77236551e-02, -1.93730630e-02,
       -2.00174749e-02, 9.80738644e-03, 2.66537499e-02, 3.34286503e-02,
       -3.34135368e-02, -2.45302246e-04, 2.91756783e-02, -2.85376818e-03,
       -1.87635459e-02, 7.16629252e-03, 3.43664065e-02, 9.80610307e-03,
       5.30404113e-02, 2.04543825e-02, -1.57912560e-02, 2.58014258e-02,
       1.35595640e-02, 2.06686612e-02, -2.10935008e-02, -1.25607736e-02,
       2.21397309e-03, -2.24465802e-02, -2.60803532e-02, 5.27860364e-03,
       2.88230330e-02, 3.34643922e-03, -2.90945992e-02, -1.01548014e-02,
       -5.12813451e-03, -7.64974812e-03, 8.49287584e-03, -2.30914308e-03,
       1.69495642e-02, 1.76814161e-02, 1.25823058e-02, -1.34946620e-02,
       1.06376167e-02, -1.10847736e-02, -3.97217050e-02, 3.97466077e-03,
       9.10675712e-03, -2.09574085e-02, 8.93146545e-03, 5.61377294e-02,
       8.66037235e-02, 2.69892123e-02, -2.15149205e-03, -2.21955590e-02,
       -2.04407256e-02, -3.38293463e-02, -1.35081280e-02,
       -1.84821908e-03, 8.20808858e-03, 1.33783864e-02, 5.06236851e-02,
       1.59296896e-02, -1.13207260e-02, -1.28777279e-02, -2.81679141e-03,
       -1.50718391e-02, -2.81338143e-04, -1.81417132e-03, 6.11862866e-03,
       3.75319179e-03, 2.45977030e-03, -4.75907233e-04, -1.22252870e-02,
       1.96389272e-03, 1.12156328e-02, 1.20731061e-02, 6.48329314e-03,
       -1.07175866e-02, 1.46897472e-02, 2.44434606e-02, -3.01288050e-02,
       1.32995332e-02, -1.33688971e-02, -2.65100617e-02, -1.88015588e-02,
       -3.24636232e-03, -3.12325303e-02, 4.91913073e-02, 1.42303184e-02,
       -2.22097225e-02, 7.17893522e-03, 2.27531884e-03, 4.76094428e-03,
       -4.28449363e-03, 2.18309127e-02, -2.43565254e-02, 1.73695646e-02,
       -1.87600777e-02, -6.37981249e-03, 9.54986736e-03, -1.48222307e-02,
       -5.40532963e-03, 9.60758980e-03, 1.34443035e-02, 7.61654228e-03,
       8.10535401e-02, 7.33696222e-02, -1.43932868e-02, 1.08491611e-02,
       -2.21889839e-02, 7.54189072e-03, 1.98833216e-02, 1.00645134e-02,
       -3.44476327e-02, 2.57052425e-02, 3.58670317e-02, -9.32164025e-03,
       8.74880422e-03, 1.82533432e-02, 3.32856104e-02, -1.66568160e-02,
       5.10899862e-03, -2.02492587e-02, 6.50400948e-03, 5.15184458e-03,
       -1.27362292e-02, -2.01351736e-02, -3.37542524e-03,
       -2.23372877e-02, -2.24114619e-02, -7.67411292e-03,
       -2.14409363e-02, 2.50500813e-03, 2.13837661e-02, 1.83514711e-02,
       5.87190175e-03, 6.27488689e-03, 3.60965058e-02, 2.38372572e-02,
       -1.92051718e-03, -1.01528596e-02, 5.15055656e-02, 7.72731751e-03,
       -1.66549291e-02, -4.39173728e-03, 9.28143132e-03, 5.93870506e-03,
       1.32417977e-02, -6.10414252e-04, 3.15805618e-03, 3.55025344e-02,
       -6.26593642e-03, -5.30382898e-03, 1.36497035e-03, 4.19329200e-03,
       -1.18551524e-02, -2.72910763e-02, 3.95463873e-03, -1.15991393e-02,
       5.60534485e-02, 4.19105999e-02, -2.63747536e-02, -1.24318469e-02,
       -3.29433940e-03, -1.94880981e-02, -1.59422029e-02,
       -2.30778903e-02, -2.76373792e-02, 3.85891907e-02, 1.03077795e-02,
       5.56888245e-03, 1.19063621e-02, 1.27847707e-02, 2.38163862e-02,
       1.05868373e-03, -7.35695101e-03, -1.33590132e-03, 2.23358795e-02,
       8.66652280e-03, -1.34386690e-02, 6.26014220e-03, 4.80480399e-03,
       -1.42365163e-02, -1.41973048e-02, -1.74492449e-02, 1.16569316e-02,
       4.21275347e-02, 1.91480003e-03, -3.30035365e-03, -1.02536399e-02,
       -6.10726746e-03, 1.06401928e-02, -7.26896804e-03, -1.41218230e-02,
       -7.34731043e-03, 5.41192070e-02, 2.32308879e-02, 3.42653543e-02,
       8.47652741e-03, -1.24403397e-02, -9.30593163e-03, -9.77748167e-03,
       -1.08266128e-02, -1.22976238e-02, 1.62202511e-02, 3.13922539e-02,
       1.26276407e-02, 1.81576367e-02, 1.09939277e-02, -4.40484704e-03,
       -1.80867203e-02, 8.09528213e-03, 1.59979071e-02, 3.41889858e-02,
       1.65128428e-02, -5.30136097e-03, 6.34552678e-03, 3.59812845e-03,
       3.27398907e-03, 2.57397313e-02, 8.97893551e-05, -1.37093179e-02,
       -7.44316448e-03, 1.75148027e-03, 5.61140478e-02, 5.07856645e-02,
       8.79061036e-03, 3.63869071e-02, 2.70642294e-03, -1.92127668e-03,
       -1.21847047e-02, 1.84064675e-02, 2.97619905e-02, 2.04496533e-02,
       1.66562162e-02, -1.49422707e-02, 8.45572911e-03, 8.47087475e-04,
       6.15968835e-03, -1.41699649e-02, 4.69810516e-03, -5.54358307e-03,
       -1.81353034e-03, 1.31883251e-03, 4.99311835e-03, 3.99959162e-02,
       4.27682772e-02, 6.92509720e-03, -1.63370147e-02, 1.00756176e-02,
       -2.32528546e-03, -2.81534232e-02, -3.24049927e-02,
       -2.76291743e-02, 7.75530562e-03, 1.50399804e-02, 2.78151291e-03,
       -9.05055925e-03, 5.07014524e-03, -7.94921257e-03, 1.59753580e-02,
       -2.27564946e-03, -3.17450576e-02, 2.87644449e-03, -7.98066976e-05,
       1.89309027e-02, -1.88361295e-02, 2.64736768e-02, 1.50316358e-02,
       1.17431544e-02, -3.15400884e-02, -4.02601436e-02, -1.16727361e-02,
       -9.63106053e-04, -2.04787757e-02, -2.96528451e-02, 3.73895802e-02,
       1.03700180e-02, -1.24611817e-02, -1.17144175e-02, -1.00298021e-02,
       6.12580683e-03, 3.94998863e-03, 1.94179881e-02, -9.45043657e-03,
       2.63413042e-02, -1.51706617e-02, -2.40246393e-02, -2.21248139e-02,
       -2.42778789e-02, -1.24583673e-02, -1.28520085e-02, 3.23508680e-03,
       -1.90785043e-02, 2.59716772e-02, 2.46662903e-03, 8.87015276e-03,
       1.51848793e-02, 8.65923334e-03, 2.95479428e-02, 3.27257998e-02,
       -5.11863083e-03, -1.59409866e-02, 3.65876146e-02, 1.84683129e-02,
       4.83775232e-03, -1.73530318e-02, -1.16667692e-02, 2.64238846e-02,
       1.51709151e-02, 3.67867686e-02, 1.26363579e-02, 5.61076216e-03,
       -1.50638279e-02, -3.42439003e-02, -1.70495380e-02,
       -1.32947797e-02, 2.96674785e-03, -1.68300339e-03, -2.01337617e-02,
       -2.19947044e-02, 2.22009439e-02, 9.52464622e-03, -3.22158448e-02,
       -2.89168302e-02, -3.06466687e-02, -1.60785634e-02, 2.02353094e-02,
       1.25477947e-02, -3.06899436e-02, -7.22115720e-03, -2.01114938e-02,
       2.67205928e-02, 1.39047075e-02, -1.98789556e-02, 3.47620361e-02,
       1.27931675e-02, 3.54724750e-02, 7.66224135e-03, 1.16203176e-02,
       -5.55179780e-03, 2.08970867e-02, 1.82953868e-02, -7.13518064e-04,
       3.67841460e-02, 6.39247242e-03, 1.02548711e-02, -1.57121718e-02,
       1.07109845e-02, 8.33810586e-03, -2.42948681e-02, -2.34743692e-02,
       -2.75331587e-02, -8.86857416e-03, 1.74651332e-02, 1.31397462e-02,
       -7.60387862e-03, 1.03676673e-02, -3.54719930e-03, -2.28030104e-02,
       -1.75515246e-02, -2.96159666e-02, -1.09812487e-02,
       -4.68707923e-03, -3.80976461e-02, -1.81294326e-02,
       -3.38124810e-03, -7.89834466e-03, 1.03383474e-02, 2.05288623e-02,
       2.09655464e-02, 6.53133839e-02, 2.68671960e-02, 3.83791253e-02,
       3.09474282e-02, 4.68065143e-02, 1.14151733e-02, -1.47425178e-02,
       2.04281453e-02, 1.36173889e-02, 1.67800523e-02, 1.63766276e-02,
       -3.12954467e-03, 1.62439533e-02, 2.03070026e-02, -7.53722293e-03,
       -7.01771874e-04, 3.03942282e-02, 8.08914192e-03, -1.67690299e-03,
       -5.97434468e-04, -1.45620452e-02, 2.67831003e-03, -4.20547090e-03,
       -2.21875887e-02, -1.78781729e-02, -2.37374124e-03,
       -1.56673249e-02, -3.78456078e-02, -2.41420418e-02,
       -4.01008800e-02, -3.86450738e-02, -1.70974731e-02,
       -8.01155716e-03, 7.89991021e-03, 2.58157682e-02, 2.01838929e-02,
       5.81002347e-02, 4.12154570e-02, 1.46640642e-02, 1.74195189e-02,
       2.92445924e-02, 1.08728856e-02, -1.66618954e-02, -2.56865770e-02,
       1.88184541e-03, 3.64242420e-02, 3.45309488e-02, -1.79295372e-02,
       -4.08366963e-04, -2.61753816e-02, -2.59578247e-02, 1.33515690e-02,
       1.50995608e-02, 2.55714115e-02, 1.87260360e-02, 2.68970313e-03,
       -1.04952371e-02, 1.79018471e-02, 5.77174360e-03, 1.76618900e-02,
       6.44527096e-03, 4.14650701e-03, 3.62305087e-04, -5.33145247e-03,
       -2.66513089e-03, -1.24569908e-02, 7.48537073e-04, -2.83902083e-02,
       1.09147828e-03, 1.64545532e-02, -5.16718114e-03, -1.45283770e-02,
       2.67262217e-02, -1.10688061e-02, -9.96527541e-03, 4.26177401e-03,
       -7.25804304e-04, 1.35292672e-02, -1.06294677e-02, -2.25364976e-02,
       7.19637470e-03, 2.49208268e-02, -3.64853665e-02, 1.36780301e-02,
       4.99188248e-03, -3.06593161e-02, -4.32156399e-03, 1.67750809e-02,
       9.85018443e-03, -8.12639948e-03, -3.37183534e-04, 3.52556864e-03,
       3.21712382e-02, 7.90457241e-03, -2.46370072e-03, 1.34898312e-02,
       -4.05712373e-04, -2.07038820e-02, 9.46505554e-03, -2.02526478e-03,
       1.45064062e-02, 3.48048657e-02, -1.38413738e-02, -2.31159460e-02,
       3.25289366e-05, 2.13223659e-02, -1.88586023e-02, -3.79811004e-02,
       6.56429119e-03, 3.34573500e-02, 2.23088656e-02, -1.16277691e-02,
       -1.34184258e-03, 4.52797748e-02, -1.96919888e-02, -5.13430452e-03,
       -1.29223764e-02, 2.10734438e-02, 2.61189435e-02, 3.20834517e-02,
       -1.97126437e-02, -2.12011137e-03, 3.00007816e-02, 2.04490311e-02,
       1.49605013e-02, -2.35820375e-02, 1.43610826e-03, 2.23460812e-02,
       3.58477980e-02, -2.24949606e-02, -2.10908037e-02, 2.86424570e-02,
       -1.15824156e-02, -2.11232109e-03, 2.09113164e-03, 3.83497477e-02,
       2.93182489e-03, 2.87862346e-02, 1.80769917e-02, 1.66576635e-02,
       1.41247828e-02, 1.72093529e-02, 8.02628230e-03, -1.02310795e-02,
       -1.89078855e-03, 1.84354912e-02, 2.00883159e-03, -9.00309708e-04,
       -1.60064958e-02, 3.04420143e-02, 3.85699570e-02, 8.94876663e-03,
       2.01132204e-02, 1.29399039e-02, -7.57321995e-03, 1.04745487e-02,
       -1.22609381e-02, -1.98321268e-05, 2.31623948e-02, 2.14825124e-02,
       9.36504453e-03, 2.04160274e-03, 8.56828503e-03, 5.08878380e-03,
       3.75152857e-04, 1.48481061e-03, -5.20518236e-03, 2.22282996e-03,
       1.50349829e-02, -2.77832407e-03, -1.85808558e-02, 1.03914822e-02,
       8.52653105e-03, 2.00861227e-02, 7.28928763e-03, 8.68512783e-03,
       1.04178386e-02, 1.01938974e-02, -2.13848203e-02, -1.09599670e-02,
       1.11226775e-02, 1.71319786e-02, 1.66772362e-02, -1.23924622e-02,
       5.01794321e-03, -1.04854843e-02, 1.60407759e-02, 2.71436796e-02,
       5.52033493e-03, 2.31223982e-02, -9.43970867e-03, 4.17724671e-03,
       -1.85279008e-02, -9.61184385e-04, -1.80741623e-02, 9.47564142e-04,
       9.93895438e-03, 5.33736916e-03, 2.55431440e-02, 3.69834714e-02,
       2.44043861e-02, 9.36615467e-03, 1.55890200e-04, 2.93528987e-03,
       1.06046423e-02, 2.71728765e-02, 4.68624309e-02, 4.22070213e-02,
       4.91125509e-03, 2.87719332e-02, 1.18203787e-02, 9.11814068e-03,
       1.91267543e-02, 1.92322843e-02, -2.85574864e-03, -2.13881675e-03,
       -1.86687838e-02, -5.94390417e-03, -1.14948694e-02,
       -2.11613085e-02, -8.90840590e-03, -7.56476354e-03,
       -1.47127416e-02, -1.24235440e-03, -6.93996856e-03,
       -1.80616770e-02, -3.34921991e-03, -2.95114089e-02,
       -7.78737012e-03, -8.00071564e-03, 8.58121610e-04, -4.95052151e-03,
       -1.14360172e-02, 2.10338961e-02, 1.79174729e-02, -1.27823465e-02,
       3.31122894e-03, 8.08239728e-03, 2.01765299e-02, -7.53894448e-03,
       -8.54108296e-03, 2.72687688e-03, 9.28485394e-03, 9.41263232e-03,
       -2.56117270e-03, 1.02213826e-02, 2.44221631e-02, 2.56365184e-02,
       -8.70971940e-03, 3.69812897e-03, 3.62710506e-02, 3.42900865e-03,
       6.48660120e-03, 1.41405864e-02, -1.58290416e-02, -3.55271448e-04,
       3.09585333e-02, 2.92692184e-02, 3.70976073e-03, 1.20830704e-02,
       -1.00414688e-02, 8.09066743e-03, 2.87771337e-02, -3.17431465e-02,
       -3.88685241e-02, 3.27795569e-05, 2.95787454e-02, 6.82093576e-03,
       3.70574519e-02, 5.36448928e-03, 1.50072267e-02, 2.39568893e-02,
       -2.91154813e-03, -1.03443246e-02, 8.65736697e-03, -1.26772420e-02,
       -5.87067159e-04, 2.91733611e-02, -6.04400132e-03, -6.72220532e-03,
       3.61230895e-02, -9.49339196e-03, -3.92971560e-02, -5.71506750e-03,
       -1.44369174e-02, 1.16198845e-02, 1.48522761e-02, -3.50345043e-04,
       2.05507893e-02, 1.65385250e-02, 1.59025867e-03, -2.62329634e-02,
       2.26338916e-02, 2.67962590e-02, 8.78800452e-03, 3.81601565e-02,
       -8.24807771e-03, 2.29774099e-02, 2.08223388e-02, 8.22427403e-03,
       3.03985085e-03, 7.58122234e-03, 8.21471214e-03, -1.73061974e-02,
       1.68874115e-03, -2.79748570e-02, -2.08313521e-02, 2.52266880e-02,
       6.92841550e-03, -1.83139406e-02, -9.43705719e-03, 1.02562560e-02,
       -2.39798333e-02, -3.02920975e-02, -3.61821428e-02,
       -1.47939948e-02, -7.90596008e-03, -4.43518674e-03,
       -1.73110664e-02, -7.60952616e-03, 2.13130359e-02, 7.57036544e-03,
       4.28872854e-02, 4.38077934e-03, 4.63657975e-02, 3.99844460e-02,
       6.66479254e-03, 2.30579674e-02, 7.06570735e-03, 2.48221997e-02,
       -2.50363294e-02, -1.06745809e-02, -3.44614163e-02,
       -5.38865104e-04, 2.23631877e-02, 4.29110322e-03, 1.45632206e-02,
       -5.03077079e-03, -1.65425129e-02, -1.49571160e-02, 5.68182301e-03,
       1.62728888e-03, 2.90749851e-03, 3.18382792e-02, 7.33957021e-03,
       -2.45532040e-02, -1.34817902e-02, 5.30182198e-03, -2.49778796e-02,
       2.45716572e-02, -4.21438925e-02, -7.06345448e-03, 2.48014089e-03,
       -9.60170582e-04, -1.71903931e-02, -1.08017437e-02,
       -2.12334413e-02, 1.63253658e-02, 2.21830606e-02, -6.21025404e-03,
       -4.85278107e-03, -8.73172749e-03, 4.43025939e-02, 2.65344717e-02,
       -5.22580044e-03, 3.70943360e-03, -2.52884999e-02, 1.93157755e-02,
       2.33163722e-02, -8.68804194e-03, 1.72504075e-02, 2.15883832e-02,
       7.18251150e-03, -2.44653765e-02, -2.89186575e-02, 6.25011371e-03,
       3.92818600e-02, -2.72349827e-02, 3.07825487e-03, -5.02678845e-03,
       7.78534682e-03, -2.13019494e-02, 2.29325145e-02, 4.82890941e-03,
       -1.37194479e-02, -6.47886284e-03, -8.84672254e-03,
       -1.95880830e-02, -5.77247096e-03, -2.30868459e-02,
       -1.84589829e-02, 7.94135034e-03, -1.71736311e-02, 3.99033539e-02,
       2.59042829e-02, 1.09043252e-02, 2.72739939e-02, 1.24957254e-02,
       1.61680463e-03, -6.79582765e-04, 4.94491635e-03, 5.34188235e-03,
       -9.56671138e-04, -2.22302158e-03, -2.16209795e-02, 1.81973837e-02,
       1.68862697e-02, 8.46665818e-03, -1.88317131e-02, 2.05984525e-02,
       -3.70955491e-03, 2.88558416e-02, 1.57226436e-02, -5.95407933e-03,
       -1.27656460e-02, -2.08925176e-02, -2.24765576e-03, 7.25966832e-03,
       1.80536509e-03, 1.05125559e-02, -2.53903423e-03, 1.05420621e-02,
       -1.41301332e-02, -9.31571424e-03, 4.71430505e-03, -2.80438736e-03,
       -1.77526064e-02, -2.83766305e-03, -1.85660478e-02,
       -2.58652028e-02, 1.22914277e-02, 1.37477694e-02, 3.15546803e-02,
       -5.76904626e-04, 2.91741751e-02, 4.73778695e-03, 2.58742161e-02,
       -5.96343027e-03, 9.89527791e-04, 3.88916349e-03, 1.58576062e-03,
       1.97610855e-02, -9.10593488e-04, 1.64879356e-02, 1.19933514e-02,
       1.95571743e-02, -7.29347533e-03, 6.43255282e-03, 1.66544747e-02,
       -1.11011192e-02, 1.40968952e-02, -5.39313583e-03, 2.75301188e-03,
       -1.31011773e-02, 6.09312067e-03, -6.00100029e-03, 1.89844463e-02,
       -1.16946606e-03, -2.59632319e-02, -1.21592684e-02, 6.58631232e-03,
       -6.73598330e-03, -2.03009825e-02, 8.85321386e-03, -9.54281911e-03,
       3.82068520e-03, 3.95637527e-02, 1.26489263e-03, 3.53796110e-02,
       4.37281933e-03, 6.71865651e-03, 3.58419050e-03, 2.36834660e-02,
       4.69434168e-03, -1.40286926e-02, 1.64357219e-02, 1.81222837e-02,
       2.41238363e-02, -1.24427341e-02, 1.38564818e-02, -2.97096595e-02,
       -2.61362223e-03, -2.03656517e-02, 9.26247705e-03, 2.17539649e-02,
       -2.14513857e-02, -8.84432159e-03, -2.54285559e-02, 2.72340570e-02,
       -4.20756033e-03, 4.85669868e-03, -1.19921647e-03, -2.10053846e-02,
       1.29633537e-02, -1.21829729e-03, -2.89759208e-02, -1.32935690e-02,
       1.42473867e-02, -9.81844869e-03, -2.00430881e-02, -7.01742107e-03,
       -5.42974751e-03, -3.76837474e-04, 9.16892942e-03, 1.99710093e-02,
       4.07603662e-03, 2.85980757e-02, -1.68825826e-03, 1.33524295e-02,
       -7.16054696e-04, -3.55628207e-02, -1.09618260e-02,
       -1.13106659e-02, -1.54034225e-02, 6.02292304e-04, -1.47266546e-02,
       2.31735986e-02, 3.38282320e-03, -7.95224402e-03, 2.63216719e-02,
       1.51807833e-02, 3.03244428e-03, 1.04923714e-02, -4.06993926e-03,
       2.75975969e-02, -1.01314122e-02, -2.59844251e-02, -3.05545720e-04,
       5.74034918e-03, 3.12850671e-03, -6.79418305e-03, -2.11261157e-02,
       -1.31924059e-02, -1.39609128e-02, -1.34147622e-03, 5.48468623e-03,
       2.11775929e-04, 1.90968346e-03, 2.40831040e-02, -7.93258287e-03,
       5.80780813e-03, 8.15304089e-03, 4.43170890e-02, 3.47631797e-02,
       7.76813971e-03, 1.37857413e-02, -4.48359177e-03, 7.78845791e-03,
       -1.72054151e-03, 2.73875091e-02, -2.08193925e-03, 3.72657031e-02,
       -6.11304492e-03, -9.43807140e-03, -1.56197958e-02,
       -3.27320304e-03, -4.28006286e-03, -9.59207397e-03, 8.04294774e-04,
       -2.01866776e-02, 1.43932402e-02, 2.16828305e-02, 8.52440018e-03,
       -1.46467274e-03, -2.57003657e-03, 5.30180894e-03, -1.48228547e-02,
       6.04736560e-04, 2.57212538e-02, -1.58600733e-02, -8.78847297e-03,
       5.86787146e-03, -6.67685457e-03, 4.80463728e-02, 1.24553973e-02,
       1.02916136e-02, 2.94030141e-02, 7.22468458e-03, -6.51274016e-03,
       1.13590527e-02, -6.54624775e-04, 7.28342123e-03, 3.40505354e-02,
       1.03711989e-02, -3.90660157e-03, -1.94386739e-04, -1.04435673e-02,
       4.57412796e-03, 3.69593478e-03, -2.21433640e-02, -6.59668958e-03,
       2.36798041e-02, 3.98516767e-02, -2.01216582e-02, -8.29393044e-03,
       2.21602153e-02, -9.58778523e-03, 1.54922558e-02, 1.45626888e-02,
       -4.18236479e-03, -5.49015170e-03, -1.82600450e-02,
       -1.60912164e-02, -1.55147361e-02, 2.23653503e-02, 1.72813348e-02,
       1.39646383e-03, -1.53083056e-02, -2.56422488e-03, 2.96724867e-02,
       -6.50983257e-03, -1.52649661e-03, 1.04059954e-03, -1.73101127e-02,
       4.91954572e-02, -3.62453354e-03, -2.49332152e-02, 1.55447191e-02,
       1.23211611e-02, -2.81261485e-02, 5.14434837e-03, -6.61455886e-03,
       -2.81024389e-02, 3.03917266e-02, -1.39807342e-02, -3.10988668e-02,
       1.71375014e-02, -5.05208084e-03, -1.23862978e-02, -1.28168694e-03,
       2.78499760e-02, -6.77681807e-03, 1.93367172e-02, -1.45945242e-02,
       -1.86632443e-02, 2.12163553e-02, 2.19700765e-02, -1.32988235e-02,
       -2.64063142e-02, 1.62671655e-02, -3.34624313e-02, 1.80120021e-02,
       2.14241329e-03, -3.22854221e-02, 2.58475039e-02, -1.64147830e+00 ]
